digraph Tree {
node [shape=box, style="filled", color="black"] ;
0 [label="ak <= 0.123\nentropy = 1.605\nsamples = 44\nvalue = [1, 1, 27, 10, 1, 4]\nclass = AA-", fillcolor="#9cf2c0"] ;
1 [label="z <= 18.457\nentropy = 0.513\nsamples = 23\nvalue = [1, 0, 21, 1, 0, 0]\nclass = AA-", fillcolor="#4be78c"] ;
0 -> 1 [labeldistance=2.5, labelangle=45, headlabel="True"] ;
2 [label="entropy = 0.0\nsamples = 20\nvalue = [0, 0, 20, 0, 0, 0]\nclass = AA-", fillcolor="#39e581"] ;
1 -> 2 ;
3 [label="entropy = 1.585\nsamples = 3\nvalue = [1, 0, 1, 1, 0, 0]\nclass = A", fillcolor="#ffffff"] ;
1 -> 3 ;
4 [label="bd <= 1785587.75\nentropy = 1.914\nsamples = 21\nvalue = [0, 1, 6, 9, 1, 4]\nclass = AA", fillcolor="#d7ebfa"] ;
0 -> 4 [labeldistance=2.5, labelangle=-45, headlabel="False"] ;
5 [label="c <= 121002.5\nentropy = 1.497\nsamples = 17\nvalue = [0, 0, 6, 9, 1, 1]\nclass = AA", fillcolor="#c9e4f8"] ;
4 -> 5 ;
6 [label="bb <= 97845.242\nentropy = 1.295\nsamples = 10\nvalue = [0, 0, 6, 3, 0, 1]\nclass = AA-", fillcolor="#aaf4c9"] ;
5 -> 6 ;
7 [label="bg <= 248700.547\nentropy = 0.811\nsamples = 4\nvalue = [0, 0, 0, 3, 0, 1]\nclass = AA", fillcolor="#7bbeee"] ;
6 -> 7 ;
8 [label="entropy = 0.0\nsamples = 2\nvalue = [0, 0, 0, 2, 0, 0]\nclass = AA", fillcolor="#399de5"] ;
7 -> 8 ;
9 [label="entropy = 1.0\nsamples = 2\nvalue = [0, 0, 0, 1, 0, 1]\nclass = AA", fillcolor="#ffffff"] ;
7 -> 9 ;
10 [label="entropy = 0.0\nsamples = 6\nvalue = [0, 0, 6, 0, 0, 0]\nclass = AA-", fillcolor="#39e581"] ;
6 -> 10 ;
11 [label="bh <= 176750.0\nentropy = 0.592\nsamples = 7\nvalue = [0, 0, 0, 6, 1, 0]\nclass = AA", fillcolor="#5aade9"] ;
5 -> 11 ;
12 [label="entropy = 1.0\nsamples = 2\nvalue = [0, 0, 0, 1, 1, 0]\nclass = AA", fillcolor="#ffffff"] ;
11 -> 12 ;
13 [label="entropy = 0.0\nsamples = 5\nvalue = [0, 0, 0, 5, 0, 0]\nclass = AA", fillcolor="#399de5"] ;
11 -> 13 ;
14 [label="af <= 27.975\nentropy = 0.811\nsamples = 4\nvalue = [0, 1, 0, 0, 0, 3]\nclass = AAA", fillcolor="#ee7bbe"] ;
4 -> 14 ;
15 [label="entropy = 1.0\nsamples = 2\nvalue = [0, 1, 0, 0, 0, 1]\nclass = A+", fillcolor="#ffffff"] ;
14 -> 15 ;
16 [label="entropy = 0.0\nsamples = 2\nvalue = [0, 0, 0, 0, 0, 2]\nclass = AAA", fillcolor="#e5399d"] ;
14 -> 16 ;
}