digraph Tree {
node [shape=box, style="filled", color="black"] ;
0 [label="ak <= 0.125\nentropy = 1.403\nsamples = 30\nvalue = [1, 19, 7, 3]\nclass = A+", fillcolor="#9ff198"] ;
1 [label="entropy = 0.0\nsamples = 16\nvalue = [0, 16, 0, 0]\nclass = A+", fillcolor="#47e539"] ;
0 -> 1 [labeldistance=2.5, labelangle=45, headlabel="True"] ;
2 [label="al <= 0.514\nentropy = 1.724\nsamples = 14\nvalue = [1, 3, 7, 3]\nclass = AA-", fillcolor="#b7dbf6"] ;
0 -> 2 [labeldistance=2.5, labelangle=-45, headlabel="False"] ;
3 [label="bk <= 1377479.125\nentropy = 1.241\nsamples = 11\nvalue = [1, 0, 7, 3]\nclass = AA-", fillcolor="#9ccef2"] ;
2 -> 3 ;
4 [label="ax <= 109.395\nentropy = 0.544\nsamples = 8\nvalue = [0, 0, 7, 1]\nclass = AA-", fillcolor="#55abe9"] ;
3 -> 4 ;
5 [label="entropy = 0.0\nsamples = 6\nvalue = [0, 0, 6, 0]\nclass = AA-", fillcolor="#399de5"] ;
4 -> 5 ;
6 [label="entropy = 1.0\nsamples = 2\nvalue = [0, 0, 1, 1]\nclass = AA-", fillcolor="#ffffff"] ;
4 -> 6 ;
7 [label="entropy = 0.918\nsamples = 3\nvalue = [1, 0, 0, 2]\nclass = AA", fillcolor="#eb9cf2"] ;
3 -> 7 ;
8 [label="entropy = 0.0\nsamples = 3\nvalue = [0, 3, 0, 0]\nclass = A+", fillcolor="#47e539"] ;
2 -> 8 ;
}