digraph Tree {
node [shape=box, style="filled", color="black"] ;
0 [label="cj <= 1936606784.0\nentropy = 1.847\nsamples = 14763\nvalue = [149, 432, 68, 2127, 3682, 599, 7687, 4, 1, 6, 7\n1]\nclass = A", fillcolor="#b7dcf6"] ;
1 [label="ch <= 6980386304.0\nentropy = 2.14\nsamples = 8308\nvalue = [149, 432, 68, 2127, 3528, 599, 1386, 4, 1, 6, 7\n1]\nclass = BBB+", fillcolor="#d2f9e2"] ;
0 -> 1 [labeldistance=2.5, labelangle=45, headlabel="True"] ;
2 [label="d <= 4406.0\nentropy = 2.381\nsamples = 3432\nvalue = [149, 431, 68, 1389, 233, 487, 658, 4, 1, 6, 5, 1]\nclass = BBB", fillcolor="#cff8cb"] ;
1 -> 2 ;
3 [label="c <= 80425.0\nentropy = 2.226\nsamples = 2878\nvalue = [149, 431, 68, 1382, 233, 487, 114, 4, 1, 6, 2, 1]\nclass = BBB", fillcolor="#baf5b5"] ;
2 -> 3 ;
4 [label="ch <= 1797761152.0\nentropy = 2.316\nsamples = 767\nvalue = [148, 315, 68, 128, 5, 80, 13, 0, 1, 6, 2, 1]\nclass = CC", fillcolor="#f8f4ca"] ;
3 -> 4 ;
5 [label="bd <= 0.057\nentropy = 1.928\nsamples = 598\nvalue = [146, 315, 68, 26, 1, 29, 3, 0, 1, 6, 2, 1]\nclass = CC", fillcolor="#f5f0b5"] ;
4 -> 5 ;
6 [label="d <= 357.5\nentropy = 1.976\nsamples = 459\nvalue = [145, 201, 68, 24, 1, 9, 3, 0, 1, 6, 0, 1]\nclass = CC", fillcolor="#faf8dc"] ;
5 -> 6 ;
7 [label="c <= 38165.785\nentropy = 1.909\nsamples = 380\nvalue = [82, 195, 68, 19, 0, 5, 3, 0, 1, 6, 0, 1]\nclass = CC", fillcolor="#f5f0b4"] ;
6 -> 7 ;
8 [label="c <= 24250.0\nentropy = 2.154\nsamples = 140\nvalue = [57, 27, 36, 10, 0, 0, 3, 0, 1, 5, 0, 1]\nclass = C", fillcolor="#fae6d7"] ;
7 -> 8 ;
9 [label="c <= 9332.5\nentropy = 2.095\nsamples = 60\nvalue = [4, 21, 23, 7, 0, 0, 3, 0, 1, 0, 0, 1]\nclass = B", fillcolor="#fafef5"] ;
8 -> 9 ;
10 [label="c <= 266.5\nentropy = 1.5\nsamples = 12\nvalue = [0, 3, 0, 6, 0, 0, 3, 0, 0, 0, 0, 0]\nclass = BBB", fillcolor="#c2f6bd"] ;
9 -> 10 ;
11 [label="entropy = 0.985\nsamples = 7\nvalue = [0, 0, 0, 4, 0, 0, 3, 0, 0, 0, 0, 0]\nclass = BBB", fillcolor="#d1f8ce"] ;
10 -> 11 ;
12 [label="c <= 6480.45\nentropy = 0.971\nsamples = 5\nvalue = [0, 3, 0, 2, 0, 0, 0, 0, 0, 0, 0, 0]\nclass = CC", fillcolor="#f6f2bd"] ;
10 -> 12 ;
13 [label="entropy = 1.0\nsamples = 2\nvalue = [0, 1, 0, 1, 0, 0, 0, 0, 0, 0, 0, 0]\nclass = CC", fillcolor="#ffffff"] ;
12 -> 13 ;
14 [label="entropy = 0.918\nsamples = 3\nvalue = [0, 2, 0, 1, 0, 0, 0, 0, 0, 0, 0, 0]\nclass = CC", fillcolor="#f2eb9c"] ;
12 -> 14 ;
15 [label="c <= 13801.735\nentropy = 1.687\nsamples = 48\nvalue = [4, 18, 23, 1, 0, 0, 0, 0, 1, 0, 0, 1]\nclass = B", fillcolor="#effbde"] ;
9 -> 15 ;
16 [label="c <= 13364.529\nentropy = 0.75\nsamples = 14\nvalue = [3, 0, 11, 0, 0, 0, 0, 0, 0, 0, 0, 0]\nclass = B", fillcolor="#b8ec6f"] ;
15 -> 16 ;
17 [label="entropy = 0.954\nsamples = 8\nvalue = [3, 0, 5, 0, 0, 0, 0, 0, 0, 0, 0, 0]\nclass = B", fillcolor="#d8f5b0"] ;
16 -> 17 ;
18 [label="entropy = 0.0\nsamples = 6\nvalue = [0, 0, 6, 0, 0, 0, 0, 0, 0, 0, 0, 0]\nclass = B", fillcolor="#9de539"] ;
16 -> 18 ;
19 [label="c <= 20964.78\nentropy = 1.615\nsamples = 34\nvalue = [1, 18, 12, 1, 0, 0, 0, 0, 1, 0, 0, 1]\nclass = CC", fillcolor="#f8f4c9"] ;
15 -> 19 ;
20 [label="entropy = 1.322\nsamples = 25\nvalue = [1, 18, 4, 1, 0, 0, 0, 0, 1, 0, 0, 0]\nclass = CC", fillcolor="#eee47b"] ;
19 -> 20 ;
21 [label="entropy = 0.503\nsamples = 9\nvalue = [0, 0, 8, 0, 0, 0, 0, 0, 0, 0, 0, 1]\nclass = B", fillcolor="#a9e852"] ;
19 -> 21 ;
22 [label="c <= 36000.0\nentropy = 1.527\nsamples = 80\nvalue = [53, 6, 13, 3, 0, 0, 0, 0, 0, 5, 0, 0]\nclass = C", fillcolor="#efb489"] ;
8 -> 22 ;
23 [label="c <= 29357.53\nentropy = 1.292\nsamples = 74\nvalue = [53, 6, 10, 0, 0, 0, 0, 0, 0, 5, 0, 0]\nclass = C", fillcolor="#eeaa7a"] ;
22 -> 23 ;
24 [label="c <= 26362.293\nentropy = 0.881\nsamples = 30\nvalue = [21, 0, 9, 0, 0, 0, 0, 0, 0, 0, 0, 0]\nclass = C", fillcolor="#f0b78e"] ;
23 -> 24 ;
25 [label="entropy = 0.0\nsamples = 16\nvalue = [16, 0, 0, 0, 0, 0, 0, 0, 0, 0, 0, 0]\nclass = C", fillcolor="#e58139"] ;
24 -> 25 ;
26 [label="entropy = 0.94\nsamples = 14\nvalue = [5, 0, 9, 0, 0, 0, 0, 0, 0, 0, 0, 0]\nclass = B", fillcolor="#d3f3a7"] ;
24 -> 26 ;
27 [label="c <= 30594.193\nentropy = 1.207\nsamples = 44\nvalue = [32, 6, 1, 0, 0, 0, 0, 0, 0, 5, 0, 0]\nclass = C", fillcolor="#eda978"] ;
23 -> 27 ;
28 [label="entropy = 1.635\nsamples = 25\nvalue = [13, 6, 1, 0, 0, 0, 0, 0, 0, 5, 0, 0]\nclass = C", fillcolor="#f5d1b6"] ;
27 -> 28 ;
29 [label="entropy = 0.0\nsamples = 19\nvalue = [19, 0, 0, 0, 0, 0, 0, 0, 0, 0, 0, 0]\nclass = C", fillcolor="#e58139"] ;
27 -> 29 ;
30 [label="c <= 37474.0\nentropy = 1.0\nsamples = 6\nvalue = [0, 0, 3, 3, 0, 0, 0, 0, 0, 0, 0, 0]\nclass = B", fillcolor="#ffffff"] ;
22 -> 30 ;
31 [label="entropy = 0.0\nsamples = 3\nvalue = [0, 0, 3, 0, 0, 0, 0, 0, 0, 0, 0, 0]\nclass = B", fillcolor="#9de539"] ;
30 -> 31 ;
32 [label="entropy = 0.0\nsamples = 3\nvalue = [0, 0, 0, 3, 0, 0, 0, 0, 0, 0, 0, 0]\nclass = BBB", fillcolor="#47e539"] ;
30 -> 32 ;
33 [label="bd <= 0.042\nentropy = 1.415\nsamples = 240\nvalue = [25, 168, 32, 9, 0, 5, 0, 0, 0, 1, 0, 0]\nclass = CC", fillcolor="#eee57e"] ;
7 -> 33 ;
34 [label="bz <= -0.937\nentropy = 1.008\nsamples = 209\nvalue = [25, 168, 2, 9, 0, 5, 0, 0, 0, 0, 0, 0]\nclass = CC", fillcolor="#ebe065"] ;
33 -> 34 ;
35 [label="k <= 0.263\nentropy = 0.439\nsamples = 11\nvalue = [10, 0, 0, 0, 0, 1, 0, 0, 0, 0, 0, 0]\nclass = C", fillcolor="#e88e4d"] ;
34 -> 35 ;
36 [label="entropy = 0.811\nsamples = 4\nvalue = [3, 0, 0, 0, 0, 1, 0, 0, 0, 0, 0, 0]\nclass = C", fillcolor="#eeab7b"] ;
35 -> 36 ;
37 [label="entropy = 0.0\nsamples = 7\nvalue = [7, 0, 0, 0, 0, 0, 0, 0, 0, 0, 0, 0]\nclass = C", fillcolor="#e58139"] ;
35 -> 37 ;
38 [label="e <= 83.835\nentropy = 0.867\nsamples = 198\nvalue = [15, 168, 2, 9, 0, 4, 0, 0, 0, 0, 0, 0]\nclass = CC", fillcolor="#e9de59"] ;
34 -> 38 ;
39 [label="e <= 6.014\nentropy = 0.761\nsamples = 193\nvalue = [15, 168, 2, 4, 0, 4, 0, 0, 0, 0, 0, 0]\nclass = CC", fillcolor="#e9dd55"] ;
38 -> 39 ;
40 [label="entropy = 1.055\nsamples = 122\nvalue = [15, 97, 2, 4, 0, 4, 0, 0, 0, 0, 0, 0]\nclass = CC", fillcolor="#ebe067"] ;
39 -> 40 ;
41 [label="entropy = 0.0\nsamples = 71\nvalue = [0, 71, 0, 0, 0, 0, 0, 0, 0, 0, 0, 0]\nclass = CC", fillcolor="#e5d739"] ;
39 -> 41 ;
42 [label="entropy = 0.0\nsamples = 5\nvalue = [0, 0, 0, 5, 0, 0, 0, 0, 0, 0, 0, 0]\nclass = BBB", fillcolor="#47e539"] ;
38 -> 42 ;
43 [label="entropy = 0.206\nsamples = 31\nvalue = [0, 0, 30, 0, 0, 0, 0, 0, 0, 1, 0, 0]\nclass = B", fillcolor="#a0e640"] ;
33 -> 43 ;
44 [label="d <= 606.5\nentropy = 1.093\nsamples = 79\nvalue = [63, 6, 0, 5, 1, 4, 0, 0, 0, 0, 0, 0]\nclass = C", fillcolor="#eb9d64"] ;
6 -> 44 ;
45 [label="c <= 34477.6\nentropy = 0.528\nsamples = 70\nvalue = [63, 6, 0, 0, 0, 1, 0, 0, 0, 0, 0, 0]\nclass = C", fillcolor="#e88f4f"] ;
44 -> 45 ;
46 [label="entropy = 0.0\nsamples = 4\nvalue = [0, 4, 0, 0, 0, 0, 0, 0, 0, 0, 0, 0]\nclass = CC", fillcolor="#e5d739"] ;
45 -> 46 ;
47 [label="c <= 51990.0\nentropy = 0.309\nsamples = 66\nvalue = [63, 2, 0, 0, 0, 1, 0, 0, 0, 0, 0, 0]\nclass = C", fillcolor="#e68742"] ;
45 -> 47 ;
48 [label="c <= 44295.92\nentropy = 0.139\nsamples = 51\nvalue = [50, 0, 0, 0, 0, 1, 0, 0, 0, 0, 0, 0]\nclass = C", fillcolor="#e6843d"] ;
47 -> 48 ;
49 [label="entropy = 0.65\nsamples = 6\nvalue = [5, 0, 0, 0, 0, 1, 0, 0, 0, 0, 0, 0]\nclass = C", fillcolor="#ea9a61"] ;
48 -> 49 ;
50 [label="entropy = 0.0\nsamples = 45\nvalue = [45, 0, 0, 0, 0, 0, 0, 0, 0, 0, 0, 0]\nclass = C", fillcolor="#e58139"] ;
48 -> 50 ;
51 [label="bz <= -7.638\nentropy = 0.567\nsamples = 15\nvalue = [13, 2, 0, 0, 0, 0, 0, 0, 0, 0, 0, 0]\nclass = C", fillcolor="#e99457"] ;
47 -> 51 ;
52 [label="entropy = 0.0\nsamples = 13\nvalue = [13, 0, 0, 0, 0, 0, 0, 0, 0, 0, 0, 0]\nclass = C", fillcolor="#e58139"] ;
51 -> 52 ;
53 [label="entropy = 0.0\nsamples = 2\nvalue = [0, 2, 0, 0, 0, 0, 0, 0, 0, 0, 0, 0]\nclass = CC", fillcolor="#e5d739"] ;
51 -> 53 ;
54 [label="c <= 70305.801\nentropy = 1.352\nsamples = 9\nvalue = [0, 0, 0, 5, 1, 3, 0, 0, 0, 0, 0, 0]\nclass = BBB", fillcolor="#c2f6bd"] ;
44 -> 54 ;
55 [label="d <= 1002.0\nentropy = 0.65\nsamples = 6\nvalue = [0, 0, 0, 5, 1, 0, 0, 0, 0, 0, 0, 0]\nclass = BBB", fillcolor="#6cea61"] ;
54 -> 55 ;
56 [label="entropy = 0.918\nsamples = 3\nvalue = [0, 0, 0, 2, 1, 0, 0, 0, 0, 0, 0, 0]\nclass = BBB", fillcolor="#a3f29c"] ;
55 -> 56 ;
57 [label="entropy = 0.0\nsamples = 3\nvalue = [0, 0, 0, 3, 0, 0, 0, 0, 0, 0, 0, 0]\nclass = BBB", fillcolor="#47e539"] ;
55 -> 57 ;
58 [label="entropy = 0.0\nsamples = 3\nvalue = [0, 0, 0, 0, 0, 3, 0, 0, 0, 0, 0, 0]\nclass = A-", fillcolor="#39e5d7"] ;
54 -> 58 ;
59 [label="bu <= 0.034\nentropy = 0.864\nsamples = 139\nvalue = [1, 114, 0, 2, 0, 20, 0, 0, 0, 0, 2, 0]\nclass = CC", fillcolor="#eadf63"] ;
5 -> 59 ;
60 [label="e <= 63.65\nentropy = 0.15\nsamples = 93\nvalue = [0, 91, 0, 0, 0, 0, 0, 0, 0, 0, 2, 0]\nclass = CC", fillcolor="#e6d83d"] ;
59 -> 60 ;
61 [label="entropy = 0.0\nsamples = 91\nvalue = [0, 91, 0, 0, 0, 0, 0, 0, 0, 0, 0, 0]\nclass = CC", fillcolor="#e5d739"] ;
60 -> 61 ;
62 [label="entropy = 0.0\nsamples = 2\nvalue = [0, 0, 0, 0, 0, 0, 0, 0, 0, 0, 2, 0]\nclass = AA+", fillcolor="#e5399d"] ;
60 -> 62 ;
63 [label="ap <= 159.784\nentropy = 1.339\nsamples = 46\nvalue = [1, 23, 0, 2, 0, 20, 0, 0, 0, 0, 0, 0]\nclass = CC", fillcolor="#fcfae8"] ;
59 -> 63 ;
64 [label="ci <= 742747104.0\nentropy = 0.999\nsamples = 32\nvalue = [1, 23, 0, 0, 0, 8, 0, 0, 0, 0, 0, 0]\nclass = CC", fillcolor="#efe683"] ;
63 -> 64 ;
65 [label="bg <= -0.139\nentropy = 0.258\nsamples = 23\nvalue = [1, 22, 0, 0, 0, 0, 0, 0, 0, 0, 0, 0]\nclass = CC", fillcolor="#e6d942"] ;
64 -> 65 ;
66 [label="entropy = 1.0\nsamples = 2\nvalue = [1, 1, 0, 0, 0, 0, 0, 0, 0, 0, 0, 0]\nclass = C", fillcolor="#ffffff"] ;
65 -> 66 ;
67 [label="entropy = 0.0\nsamples = 21\nvalue = [0, 21, 0, 0, 0, 0, 0, 0, 0, 0, 0, 0]\nclass = CC", fillcolor="#e5d739"] ;
65 -> 67 ;
68 [label="al <= 0.593\nentropy = 0.503\nsamples = 9\nvalue = [0, 1, 0, 0, 0, 8, 0, 0, 0, 0, 0, 0]\nclass = A-", fillcolor="#52e8dc"] ;
64 -> 68 ;
69 [label="entropy = 1.0\nsamples = 2\nvalue = [0, 1, 0, 0, 0, 1, 0, 0, 0, 0, 0, 0]\nclass = CC", fillcolor="#ffffff"] ;
68 -> 69 ;
70 [label="entropy = 0.0\nsamples = 7\nvalue = [0, 0, 0, 0, 0, 7, 0, 0, 0, 0, 0, 0]\nclass = A-", fillcolor="#39e5d7"] ;
68 -> 70 ;
71 [label="ce <= 4223609472.0\nentropy = 0.592\nsamples = 14\nvalue = [0, 0, 0, 2, 0, 12, 0, 0, 0, 0, 0, 0]\nclass = A-", fillcolor="#5ae9de"] ;
63 -> 71 ;
72 [label="entropy = 0.0\nsamples = 12\nvalue = [0, 0, 0, 0, 0, 12, 0, 0, 0, 0, 0, 0]\nclass = A-", fillcolor="#39e5d7"] ;
71 -> 72 ;
73 [label="entropy = 0.0\nsamples = 2\nvalue = [0, 0, 0, 2, 0, 0, 0, 0, 0, 0, 0, 0]\nclass = BBB", fillcolor="#47e539"] ;
71 -> 73 ;
74 [label="bk <= 6.61\nentropy = 1.406\nsamples = 169\nvalue = [2, 0, 0, 102, 4, 51, 10, 0, 0, 0, 0, 0]\nclass = BBB", fillcolor="#aff4a9"] ;
4 -> 74 ;
75 [label="c <= 74435.547\nentropy = 1.035\nsamples = 65\nvalue = [2, 0, 0, 18, 0, 45, 0, 0, 0, 0, 0, 0]\nclass = A-", fillcolor="#8df0e8"] ;
74 -> 75 ;
76 [label="bu <= 0.042\nentropy = 0.154\nsamples = 45\nvalue = [0, 0, 0, 1, 0, 44, 0, 0, 0, 0, 0, 0]\nclass = A-", fillcolor="#3de6d8"] ;
75 -> 76 ;
77 [label="entropy = 0.0\nsamples = 43\nvalue = [0, 0, 0, 0, 0, 43, 0, 0, 0, 0, 0, 0]\nclass = A-", fillcolor="#39e5d7"] ;
76 -> 77 ;
78 [label="entropy = 1.0\nsamples = 2\nvalue = [0, 0, 0, 1, 0, 1, 0, 0, 0, 0, 0, 0]\nclass = BBB", fillcolor="#ffffff"] ;
76 -> 78 ;
79 [label="bz <= -20.145\nentropy = 0.748\nsamples = 20\nvalue = [2, 0, 0, 17, 0, 1, 0, 0, 0, 0, 0, 0]\nclass = BBB", fillcolor="#66e95a"] ;
75 -> 79 ;
80 [label="entropy = 0.918\nsamples = 3\nvalue = [2, 0, 0, 0, 0, 1, 0, 0, 0, 0, 0, 0]\nclass = C", fillcolor="#f2c09c"] ;
79 -> 80 ;
81 [label="entropy = 0.0\nsamples = 17\nvalue = [0, 0, 0, 17, 0, 0, 0, 0, 0, 0, 0, 0]\nclass = BBB", fillcolor="#47e539"] ;
79 -> 81 ;
82 [label="au <= 80.216\nentropy = 0.992\nsamples = 104\nvalue = [0, 0, 0, 84, 4, 6, 10, 0, 0, 0, 0, 0]\nclass = BBB", fillcolor="#6eeb63"] ;
74 -> 82 ;
83 [label="bv <= 14.018\nentropy = 0.497\nsamples = 92\nvalue = [0, 0, 0, 84, 2, 6, 0, 0, 0, 0, 0, 0]\nclass = BBB", fillcolor="#58e74b"] ;
82 -> 83 ;
84 [label="m <= 7.951\nentropy = 0.162\nsamples = 84\nvalue = [0, 0, 0, 82, 2, 0, 0, 0, 0, 0, 0, 0]\nclass = BBB", fillcolor="#4be63e"] ;
83 -> 84 ;
85 [label="entropy = 0.0\nsamples = 82\nvalue = [0, 0, 0, 82, 0, 0, 0, 0, 0, 0, 0, 0]\nclass = BBB", fillcolor="#47e539"] ;
84 -> 85 ;
86 [label="entropy = 0.0\nsamples = 2\nvalue = [0, 0, 0, 0, 2, 0, 0, 0, 0, 0, 0, 0]\nclass = BBB+", fillcolor="#39e581"] ;
84 -> 86 ;
87 [label="c <= 54000.0\nentropy = 0.811\nsamples = 8\nvalue = [0, 0, 0, 2, 0, 6, 0, 0, 0, 0, 0, 0]\nclass = A-", fillcolor="#7beee4"] ;
83 -> 87 ;
88 [label="entropy = 0.0\nsamples = 6\nvalue = [0, 0, 0, 0, 0, 6, 0, 0, 0, 0, 0, 0]\nclass = A-", fillcolor="#39e5d7"] ;
87 -> 88 ;
89 [label="entropy = 0.0\nsamples = 2\nvalue = [0, 0, 0, 2, 0, 0, 0, 0, 0, 0, 0, 0]\nclass = BBB", fillcolor="#47e539"] ;
87 -> 89 ;
90 [label="bg <= -0.015\nentropy = 0.65\nsamples = 12\nvalue = [0, 0, 0, 0, 2, 0, 10, 0, 0, 0, 0, 0]\nclass = A", fillcolor="#61b1ea"] ;
82 -> 90 ;
91 [label="entropy = 0.0\nsamples = 2\nvalue = [0, 0, 0, 0, 2, 0, 0, 0, 0, 0, 0, 0]\nclass = BBB+", fillcolor="#39e581"] ;
90 -> 91 ;
92 [label="entropy = 0.0\nsamples = 10\nvalue = [0, 0, 0, 0, 0, 0, 10, 0, 0, 0, 0, 0]\nclass = A", fillcolor="#399de5"] ;
90 -> 92 ;
93 [label="e <= 19.935\nentropy = 1.713\nsamples = 2111\nvalue = [1, 116, 0, 1254, 228, 407, 101, 4, 0, 0, 0, 0]\nclass = BBB", fillcolor="#a4f29d"] ;
3 -> 93 ;
94 [label="bw <= -0.095\nentropy = 1.367\nsamples = 1444\nvalue = [1, 101, 0, 918, 39, 380, 5, 0, 0, 0, 0, 0]\nclass = BBB", fillcolor="#a2f29b"] ;
93 -> 94 ;
95 [label="bk <= 10.953\nentropy = 1.19\nsamples = 211\nvalue = [1, 76, 0, 8, 0, 126, 0, 0, 0, 0, 0, 0]\nclass = A-", fillcolor="#b6f5f0"] ;
94 -> 95 ;
96 [label="ch <= 5338142208.0\nentropy = 0.491\nsamples = 137\nvalue = [1, 2, 0, 8, 0, 126, 0, 0, 0, 0, 0, 0]\nclass = A-", fillcolor="#4ae7da"] ;
95 -> 96 ;
97 [label="ch <= 1956521664.0\nentropy = 0.181\nsamples = 129\nvalue = [1, 2, 0, 0, 0, 126, 0, 0, 0, 0, 0, 0]\nclass = A-", fillcolor="#3ee6d8"] ;
96 -> 97 ;
98 [label="entropy = 0.918\nsamples = 3\nvalue = [1, 2, 0, 0, 0, 0, 0, 0, 0, 0, 0, 0]\nclass = CC", fillcolor="#f2eb9c"] ;
97 -> 98 ;
99 [label="entropy = 0.0\nsamples = 126\nvalue = [0, 0, 0, 0, 0, 126, 0, 0, 0, 0, 0, 0]\nclass = A-", fillcolor="#39e5d7"] ;
97 -> 99 ;
100 [label="entropy = 0.0\nsamples = 8\nvalue = [0, 0, 0, 8, 0, 0, 0, 0, 0, 0, 0, 0]\nclass = BBB", fillcolor="#47e539"] ;
96 -> 100 ;
101 [label="entropy = 0.0\nsamples = 74\nvalue = [0, 74, 0, 0, 0, 0, 0, 0, 0, 0, 0, 0]\nclass = CC", fillcolor="#e5d739"] ;
95 -> 101 ;
102 [label="cc <= -21.477\nentropy = 1.097\nsamples = 1233\nvalue = [0, 25, 0, 910, 39, 254, 5, 0, 0, 0, 0, 0]\nclass = BBB", fillcolor="#84ee7a"] ;
94 -> 102 ;
103 [label="ck <= 882328448.0\nentropy = 0.592\nsamples = 119\nvalue = [0, 0, 0, 0, 17, 102, 0, 0, 0, 0, 0, 0]\nclass = A-", fillcolor="#5ae9de"] ;
102 -> 103 ;
104 [label="entropy = 0.0\nsamples = 102\nvalue = [0, 0, 0, 0, 0, 102, 0, 0, 0, 0, 0, 0]\nclass = A-", fillcolor="#39e5d7"] ;
103 -> 104 ;
105 [label="entropy = 0.0\nsamples = 17\nvalue = [0, 0, 0, 0, 17, 0, 0, 0, 0, 0, 0, 0]\nclass = BBB+", fillcolor="#39e581"] ;
103 -> 105 ;
106 [label="ch <= 4109322112.0\nentropy = 0.9\nsamples = 1114\nvalue = [0, 25, 0, 910, 22, 152, 5, 0, 0, 0, 0, 0]\nclass = BBB", fillcolor="#6eeb63"] ;
102 -> 106 ;
107 [label="c <= 149845.648\nentropy = 1.428\nsamples = 497\nvalue = [0, 25, 0, 296, 22, 151, 3, 0, 0, 0, 0, 0]\nclass = BBB", fillcolor="#b2f4ac"] ;
106 -> 107 ;
108 [label="cj <= 354957712.0\nentropy = 1.322\nsamples = 252\nvalue = [0, 24, 0, 87, 0, 141, 0, 0, 0, 0, 0, 0]\nclass = A-", fillcolor="#bef6f2"] ;
107 -> 108 ;
109 [label="e <= 9.83\nentropy = 1.038\nsamples = 182\nvalue = [0, 24, 0, 20, 0, 138, 0, 0, 0, 0, 0, 0]\nclass = A-", fillcolor="#70ece2"] ;
108 -> 109 ;
110 [label="e <= 9.005\nentropy = 1.498\nsamples = 86\nvalue = [0, 23, 0, 20, 0, 43, 0, 0, 0, 0, 0, 0]\nclass = A-", fillcolor="#c0f7f2"] ;
109 -> 110 ;
111 [label="entropy = 1.332\nsamples = 72\nvalue = [0, 9, 0, 20, 0, 43, 0, 0, 0, 0, 0, 0]\nclass = A-", fillcolor="#a7f4ed"] ;
110 -> 111 ;
112 [label="entropy = 0.0\nsamples = 14\nvalue = [0, 14, 0, 0, 0, 0, 0, 0, 0, 0, 0, 0]\nclass = CC", fillcolor="#e5d739"] ;
110 -> 112 ;
113 [label="y <= 0.059\nentropy = 0.084\nsamples = 96\nvalue = [0, 1, 0, 0, 0, 95, 0, 0, 0, 0, 0, 0]\nclass = A-", fillcolor="#3be5d7"] ;
109 -> 113 ;
114 [label="entropy = 0.0\nsamples = 94\nvalue = [0, 0, 0, 0, 0, 94, 0, 0, 0, 0, 0, 0]\nclass = A-", fillcolor="#39e5d7"] ;
113 -> 114 ;
115 [label="entropy = 1.0\nsamples = 2\nvalue = [0, 1, 0, 0, 0, 1, 0, 0, 0, 0, 0, 0]\nclass = CC", fillcolor="#ffffff"] ;
113 -> 115 ;
116 [label="l <= 18.585\nentropy = 0.255\nsamples = 70\nvalue = [0, 0, 0, 67, 0, 3, 0, 0, 0, 0, 0, 0]\nclass = BBB", fillcolor="#4fe642"] ;
108 -> 116 ;
117 [label="entropy = 0.0\nsamples = 52\nvalue = [0, 0, 0, 52, 0, 0, 0, 0, 0, 0, 0, 0]\nclass = BBB", fillcolor="#47e539"] ;
116 -> 117 ;
118 [label="entropy = 0.65\nsamples = 18\nvalue = [0, 0, 0, 15, 0, 3, 0, 0, 0, 0, 0, 0]\nclass = BBB", fillcolor="#6cea61"] ;
116 -> 118 ;
119 [label="bc <= 0.542\nentropy = 0.806\nsamples = 245\nvalue = [0, 1, 0, 209, 22, 10, 3, 0, 0, 0, 0, 0]\nclass = BBB", fillcolor="#65e959"] ;
107 -> 119 ;
120 [label="d <= 802.5\nentropy = 0.433\nsamples = 226\nvalue = [0, 0, 0, 209, 15, 1, 1, 0, 0, 0, 0, 0]\nclass = BBB", fillcolor="#56e749"] ;
119 -> 120 ;
121 [label="c <= 166506.859\nentropy = 0.932\nsamples = 73\nvalue = [0, 0, 0, 56, 15, 1, 1, 0, 0, 0, 0, 0]\nclass = BBB", fillcolor="#7ded73"] ;
120 -> 121 ;
122 [label="entropy = 0.0\nsamples = 53\nvalue = [0, 0, 0, 53, 0, 0, 0, 0, 0, 0, 0, 0]\nclass = BBB", fillcolor="#47e539"] ;
121 -> 122 ;
123 [label="entropy = 1.154\nsamples = 20\nvalue = [0, 0, 0, 3, 15, 1, 1, 0, 0, 0, 0, 0]\nclass = BBB+", fillcolor="#73eda6"] ;
121 -> 123 ;
124 [label="entropy = 0.0\nsamples = 153\nvalue = [0, 0, 0, 153, 0, 0, 0, 0, 0, 0, 0, 0]\nclass = BBB", fillcolor="#47e539"] ;
120 -> 124 ;
125 [label="ci <= 737446496.0\nentropy = 1.607\nsamples = 19\nvalue = [0, 1, 0, 0, 7, 9, 2, 0, 0, 0, 0, 0]\nclass = A-", fillcolor="#defbf8"] ;
119 -> 125 ;
126 [label="aw <= 7.745\nentropy = 0.764\nsamples = 9\nvalue = [0, 0, 0, 0, 7, 0, 2, 0, 0, 0, 0, 0]\nclass = BBB+", fillcolor="#72eca5"] ;
125 -> 126 ;
127 [label="entropy = 0.0\nsamples = 2\nvalue = [0, 0, 0, 0, 0, 0, 2, 0, 0, 0, 0, 0]\nclass = A", fillcolor="#399de5"] ;
126 -> 127 ;
128 [label="entropy = 0.0\nsamples = 7\nvalue = [0, 0, 0, 0, 7, 0, 0, 0, 0, 0, 0, 0]\nclass = BBB+", fillcolor="#39e581"] ;
126 -> 128 ;
129 [label="af <= 0.047\nentropy = 0.469\nsamples = 10\nvalue = [0, 1, 0, 0, 0, 9, 0, 0, 0, 0, 0, 0]\nclass = A-", fillcolor="#4fe8db"] ;
125 -> 129 ;
130 [label="entropy = 0.0\nsamples = 8\nvalue = [0, 0, 0, 0, 0, 8, 0, 0, 0, 0, 0, 0]\nclass = A-", fillcolor="#39e5d7"] ;
129 -> 130 ;
131 [label="entropy = 1.0\nsamples = 2\nvalue = [0, 1, 0, 0, 0, 1, 0, 0, 0, 0, 0, 0]\nclass = CC", fillcolor="#ffffff"] ;
129 -> 131 ;
132 [label="bh <= 9.627\nentropy = 0.049\nsamples = 617\nvalue = [0, 0, 0, 614, 0, 1, 2, 0, 0, 0, 0, 0]\nclass = BBB", fillcolor="#48e53a"] ;
106 -> 132 ;
133 [label="entropy = 0.0\nsamples = 613\nvalue = [0, 0, 0, 613, 0, 0, 0, 0, 0, 0, 0, 0]\nclass = BBB", fillcolor="#47e539"] ;
132 -> 133 ;
134 [label="bg <= 0.012\nentropy = 1.5\nsamples = 4\nvalue = [0, 0, 0, 1, 0, 1, 2, 0, 0, 0, 0, 0]\nclass = A", fillcolor="#bddef6"] ;
132 -> 134 ;
135 [label="entropy = 1.0\nsamples = 2\nvalue = [0, 0, 0, 1, 0, 1, 0, 0, 0, 0, 0, 0]\nclass = BBB", fillcolor="#ffffff"] ;
134 -> 135 ;
136 [label="entropy = 0.0\nsamples = 2\nvalue = [0, 0, 0, 0, 0, 0, 2, 0, 0, 0, 0, 0]\nclass = A", fillcolor="#399de5"] ;
134 -> 136 ;
137 [label="d <= 1778.0\nentropy = 1.771\nsamples = 667\nvalue = [0, 15, 0, 336, 189, 27, 96, 4, 0, 0, 0, 0]\nclass = BBB", fillcolor="#c6f7c2"] ;
93 -> 137 ;
138 [label="e <= 34.915\nentropy = 1.594\nsamples = 570\nvalue = [0, 0, 0, 336, 107, 27, 96, 4, 0, 0, 0, 0]\nclass = BBB", fillcolor="#a4f29d"] ;
137 -> 138 ;
139 [label="ap <= 737.453\nentropy = 0.882\nsamples = 324\nvalue = [0, 0, 0, 271, 22, 23, 8, 0, 0, 0, 0, 0]\nclass = BBB", fillcolor="#67ea5c"] ;
138 -> 139 ;
140 [label="by <= 197.037\nentropy = 0.495\nsamples = 297\nvalue = [0, 0, 0, 270, 0, 23, 4, 0, 0, 0, 0, 0]\nclass = BBB", fillcolor="#59e84d"] ;
139 -> 140 ;
141 [label="d <= 308.5\nentropy = 0.357\nsamples = 286\nvalue = [0, 0, 0, 270, 0, 12, 4, 0, 0, 0, 0, 0]\nclass = BBB", fillcolor="#52e745"] ;
140 -> 141 ;
142 [label="d <= 84.5\nentropy = 0.969\nsamples = 69\nvalue = [0, 0, 0, 53, 0, 12, 4, 0, 0, 0, 0, 0]\nclass = BBB", fillcolor="#7bec71"] ;
141 -> 142 ;
143 [label="c <= 305000.0\nentropy = 0.486\nsamples = 58\nvalue = [0, 0, 0, 53, 0, 1, 4, 0, 0, 0, 0, 0]\nclass = BBB", fillcolor="#58e74b"] ;
142 -> 143 ;
144 [label="entropy = 0.135\nsamples = 53\nvalue = [0, 0, 0, 52, 0, 1, 0, 0, 0, 0, 0, 0]\nclass = BBB", fillcolor="#4be63d"] ;
143 -> 144 ;
145 [label="entropy = 0.722\nsamples = 5\nvalue = [0, 0, 0, 1, 0, 0, 4, 0, 0, 0, 0, 0]\nclass = A", fillcolor="#6ab6ec"] ;
143 -> 145 ;
146 [label="entropy = 0.0\nsamples = 11\nvalue = [0, 0, 0, 0, 0, 11, 0, 0, 0, 0, 0, 0]\nclass = A-", fillcolor="#39e5d7"] ;
142 -> 146 ;
147 [label="entropy = 0.0\nsamples = 217\nvalue = [0, 0, 0, 217, 0, 0, 0, 0, 0, 0, 0, 0]\nclass = BBB", fillcolor="#47e539"] ;
141 -> 147 ;
148 [label="entropy = 0.0\nsamples = 11\nvalue = [0, 0, 0, 0, 0, 11, 0, 0, 0, 0, 0, 0]\nclass = A-", fillcolor="#39e5d7"] ;
140 -> 148 ;
149 [label="cf <= 3208913664.0\nentropy = 0.825\nsamples = 27\nvalue = [0, 0, 0, 1, 22, 0, 4, 0, 0, 0, 0, 0]\nclass = BBB+", fillcolor="#64eb9c"] ;
139 -> 149 ;
150 [label="entropy = 0.722\nsamples = 5\nvalue = [0, 0, 0, 1, 0, 0, 4, 0, 0, 0, 0, 0]\nclass = A", fillcolor="#6ab6ec"] ;
149 -> 150 ;
151 [label="entropy = 0.0\nsamples = 22\nvalue = [0, 0, 0, 0, 22, 0, 0, 0, 0, 0, 0, 0]\nclass = BBB+", fillcolor="#39e581"] ;
149 -> 151 ;
152 [label="ap <= 121983.172\nentropy = 1.761\nsamples = 246\nvalue = [0, 0, 0, 65, 85, 4, 88, 4, 0, 0, 0, 0]\nclass = A", fillcolor="#fbfdff"] ;
138 -> 152 ;
153 [label="ax <= 0.041\nentropy = 1.748\nsamples = 199\nvalue = [0, 0, 0, 65, 85, 4, 41, 4, 0, 0, 0, 0]\nclass = BBB+", fillcolor="#e1fbec"] ;
152 -> 153 ;
154 [label="c <= 294794.828\nentropy = 1.584\nsamples = 65\nvalue = [0, 0, 0, 11, 12, 0, 38, 4, 0, 0, 0, 0]\nclass = A", fillcolor="#9ecff2"] ;
153 -> 154 ;
155 [label="c <= 117979.078\nentropy = 1.939\nsamples = 27\nvalue = [0, 0, 0, 9, 8, 0, 6, 4, 0, 0, 0, 0]\nclass = BBB", fillcolor="#f5fef5"] ;
154 -> 155 ;
156 [label="cc <= 7.613\nentropy = 0.918\nsamples = 6\nvalue = [0, 0, 0, 0, 0, 0, 2, 4, 0, 0, 0, 0]\nclass = A+", fillcolor="#9ca3f2"] ;
155 -> 156 ;
157 [label="entropy = 0.0\nsamples = 4\nvalue = [0, 0, 0, 0, 0, 0, 0, 4, 0, 0, 0, 0]\nclass = A+", fillcolor="#3947e5"] ;
156 -> 157 ;
158 [label="entropy = 0.0\nsamples = 2\nvalue = [0, 0, 0, 0, 0, 0, 2, 0, 0, 0, 0, 0]\nclass = A", fillcolor="#399de5"] ;
156 -> 158 ;
159 [label="e <= 99.815\nentropy = 1.51\nsamples = 21\nvalue = [0, 0, 0, 9, 8, 0, 4, 0, 0, 0, 0, 0]\nclass = BBB", fillcolor="#f1fdf0"] ;
155 -> 159 ;
160 [label="entropy = 0.985\nsamples = 14\nvalue = [0, 0, 0, 6, 8, 0, 0, 0, 0, 0, 0, 0]\nclass = BBB+", fillcolor="#cef8e0"] ;
159 -> 160 ;
161 [label="entropy = 0.985\nsamples = 7\nvalue = [0, 0, 0, 3, 0, 0, 4, 0, 0, 0, 0, 0]\nclass = A", fillcolor="#cee6f8"] ;
159 -> 161 ;
162 [label="c <= 928420.75\nentropy = 0.774\nsamples = 38\nvalue = [0, 0, 0, 2, 4, 0, 32, 0, 0, 0, 0, 0]\nclass = A", fillcolor="#5caeea"] ;
154 -> 162 ;
163 [label="bh <= 7.934\nentropy = 0.211\nsamples = 30\nvalue = [0, 0, 0, 1, 0, 0, 29, 0, 0, 0, 0, 0]\nclass = A", fillcolor="#40a0e6"] ;
162 -> 163 ;
164 [label="entropy = 0.0\nsamples = 28\nvalue = [0, 0, 0, 0, 0, 0, 28, 0, 0, 0, 0, 0]\nclass = A", fillcolor="#399de5"] ;
163 -> 164 ;
165 [label="entropy = 1.0\nsamples = 2\nvalue = [0, 0, 0, 1, 0, 0, 1, 0, 0, 0, 0, 0]\nclass = BBB", fillcolor="#ffffff"] ;
163 -> 165 ;
166 [label="c <= 4570693.75\nentropy = 1.406\nsamples = 8\nvalue = [0, 0, 0, 1, 4, 0, 3, 0, 0, 0, 0, 0]\nclass = BBB+", fillcolor="#d7fae6"] ;
162 -> 166 ;
167 [label="entropy = 0.722\nsamples = 5\nvalue = [0, 0, 0, 1, 4, 0, 0, 0, 0, 0, 0, 0]\nclass = BBB+", fillcolor="#6aeca0"] ;
166 -> 167 ;
168 [label="entropy = 0.0\nsamples = 3\nvalue = [0, 0, 0, 0, 0, 0, 3, 0, 0, 0, 0, 0]\nclass = A", fillcolor="#399de5"] ;
166 -> 168 ;
169 [label="bd <= 0.156\nentropy = 1.28\nsamples = 134\nvalue = [0, 0, 0, 54, 73, 4, 3, 0, 0, 0, 0, 0]\nclass = BBB+", fillcolor="#d0f9e1"] ;
153 -> 169 ;
170 [label="ba <= 3.519\nentropy = 0.139\nsamples = 51\nvalue = [0, 0, 0, 1, 50, 0, 0, 0, 0, 0, 0, 0]\nclass = BBB+", fillcolor="#3de684"] ;
169 -> 170 ;
171 [label="entropy = 0.0\nsamples = 49\nvalue = [0, 0, 0, 0, 49, 0, 0, 0, 0, 0, 0, 0]\nclass = BBB+", fillcolor="#39e581"] ;
170 -> 171 ;
172 [label="entropy = 1.0\nsamples = 2\nvalue = [0, 0, 0, 1, 1, 0, 0, 0, 0, 0, 0, 0]\nclass = BBB", fillcolor="#ffffff"] ;
170 -> 172 ;
173 [label="bd <= 0.648\nentropy = 1.31\nsamples = 83\nvalue = [0, 0, 0, 53, 23, 4, 3, 0, 0, 0, 0, 0]\nclass = BBB", fillcolor="#a3f29c"] ;
169 -> 173 ;
174 [label="cj <= 119593596.0\nentropy = 1.208\nsamples = 48\nvalue = [0, 0, 0, 23, 23, 2, 0, 0, 0, 0, 0, 0]\nclass = BBB", fillcolor="#ffffff"] ;
173 -> 174 ;
175 [label="entropy = 0.87\nsamples = 29\nvalue = [0, 0, 0, 23, 5, 1, 0, 0, 0, 0, 0, 0]\nclass = BBB", fillcolor="#75ec6a"] ;
174 -> 175 ;
176 [label="entropy = 0.297\nsamples = 19\nvalue = [0, 0, 0, 0, 18, 1, 0, 0, 0, 0, 0, 0]\nclass = BBB+", fillcolor="#44e688"] ;
174 -> 176 ;
177 [label="bn <= 1.238\nentropy = 0.73\nsamples = 35\nvalue = [0, 0, 0, 30, 0, 2, 3, 0, 0, 0, 0, 0]\nclass = BBB", fillcolor="#64e958"] ;
173 -> 177 ;
178 [label="entropy = 0.0\nsamples = 3\nvalue = [0, 0, 0, 0, 0, 0, 3, 0, 0, 0, 0, 0]\nclass = A", fillcolor="#399de5"] ;
177 -> 178 ;
179 [label="entropy = 0.337\nsamples = 32\nvalue = [0, 0, 0, 30, 0, 2, 0, 0, 0, 0, 0, 0]\nclass = BBB", fillcolor="#53e746"] ;
177 -> 179 ;
180 [label="entropy = 0.0\nsamples = 47\nvalue = [0, 0, 0, 0, 0, 0, 47, 0, 0, 0, 0, 0]\nclass = A", fillcolor="#399de5"] ;
152 -> 180 ;
181 [label="an <= 85.36\nentropy = 0.621\nsamples = 97\nvalue = [0, 15, 0, 0, 82, 0, 0, 0, 0, 0, 0, 0]\nclass = BBB+", fillcolor="#5dea98"] ;
137 -> 181 ;
182 [label="entropy = 0.0\nsamples = 82\nvalue = [0, 0, 0, 0, 82, 0, 0, 0, 0, 0, 0, 0]\nclass = BBB+", fillcolor="#39e581"] ;
181 -> 182 ;
183 [label="entropy = 0.0\nsamples = 15\nvalue = [0, 15, 0, 0, 0, 0, 0, 0, 0, 0, 0, 0]\nclass = CC", fillcolor="#e5d739"] ;
181 -> 183 ;
184 [label="e <= 38.701\nentropy = 0.146\nsamples = 554\nvalue = [0, 0, 0, 7, 0, 0, 544, 0, 0, 0, 3, 0]\nclass = A", fillcolor="#3d9fe5"] ;
2 -> 184 ;
185 [label="entropy = 0.0\nsamples = 544\nvalue = [0, 0, 0, 0, 0, 0, 544, 0, 0, 0, 0, 0]\nclass = A", fillcolor="#399de5"] ;
184 -> 185 ;
186 [label="ci <= 391405120.0\nentropy = 0.881\nsamples = 10\nvalue = [0, 0, 0, 7, 0, 0, 0, 0, 0, 0, 3, 0]\nclass = BBB", fillcolor="#96f08e"] ;
184 -> 186 ;
187 [label="entropy = 0.0\nsamples = 3\nvalue = [0, 0, 0, 0, 0, 0, 0, 0, 0, 0, 3, 0]\nclass = AA+", fillcolor="#e5399d"] ;
186 -> 187 ;
188 [label="entropy = 0.0\nsamples = 7\nvalue = [0, 0, 0, 7, 0, 0, 0, 0, 0, 0, 0, 0]\nclass = BBB", fillcolor="#47e539"] ;
186 -> 188 ;
189 [label="e <= 21.245\nentropy = 1.336\nsamples = 4876\nvalue = [0, 1, 0, 738, 3295, 112, 728, 0, 0, 0, 2, 0]\nclass = BBB+", fillcolor="#85efb1"] ;
1 -> 189 ;
190 [label="ch <= 10477374976.0\nentropy = 0.928\nsamples = 3129\nvalue = [0, 0, 0, 468, 2504, 110, 47, 0, 0, 0, 0, 0]\nclass = BBB+", fillcolor="#68eb9f"] ;
189 -> 190 ;
191 [label="bw <= -3.758\nentropy = 1.429\nsamples = 852\nvalue = [0, 0, 0, 326, 415, 110, 1, 0, 0, 0, 0, 0]\nclass = BBB+", fillcolor="#ddfbea"] ;
190 -> 191 ;
192 [label="ah <= 109.303\nentropy = 0.523\nsamples = 116\nvalue = [0, 0, 0, 1, 11, 104, 0, 0, 0, 0, 0, 0]\nclass = A-", fillcolor="#50e8dc"] ;
191 -> 192 ;
193 [label="entropy = 0.0\nsamples = 11\nvalue = [0, 0, 0, 0, 11, 0, 0, 0, 0, 0, 0, 0]\nclass = BBB+", fillcolor="#39e581"] ;
192 -> 193 ;
194 [label="ak <= 1.589\nentropy = 0.078\nsamples = 105\nvalue = [0, 0, 0, 1, 0, 104, 0, 0, 0, 0, 0, 0]\nclass = A-", fillcolor="#3be5d7"] ;
192 -> 194 ;
195 [label="entropy = 0.0\nsamples = 22\nvalue = [0, 0, 0, 0, 0, 22, 0, 0, 0, 0, 0, 0]\nclass = A-", fillcolor="#39e5d7"] ;
194 -> 195 ;
196 [label="entropy = 0.094\nsamples = 83\nvalue = [0, 0, 0, 1, 0, 82, 0, 0, 0, 0, 0, 0]\nclass = A-", fillcolor="#3be5d7"] ;
194 -> 196 ;
197 [label="n <= 0.761\nentropy = 1.065\nsamples = 736\nvalue = [0, 0, 0, 325, 404, 6, 1, 0, 0, 0, 0, 0]\nclass = BBB+", fillcolor="#d9fae7"] ;
191 -> 197 ;
198 [label="af <= 1.33\nentropy = 0.927\nsamples = 443\nvalue = [0, 0, 0, 321, 116, 6, 0, 0, 0, 0, 0, 0]\nclass = BBB", fillcolor="#8cef83"] ;
197 -> 198 ;
199 [label="bz <= -65.529\nentropy = 0.25\nsamples = 290\nvalue = [0, 0, 0, 280, 4, 6, 0, 0, 0, 0, 0, 0]\nclass = BBB", fillcolor="#4de640"] ;
198 -> 199 ;
200 [label="ag <= 187.404\nentropy = 0.971\nsamples = 10\nvalue = [0, 0, 0, 0, 4, 6, 0, 0, 0, 0, 0, 0]\nclass = A-", fillcolor="#bdf6f2"] ;
199 -> 200 ;
201 [label="entropy = 0.0\nsamples = 6\nvalue = [0, 0, 0, 0, 0, 6, 0, 0, 0, 0, 0, 0]\nclass = A-", fillcolor="#39e5d7"] ;
200 -> 201 ;
202 [label="entropy = 0.0\nsamples = 4\nvalue = [0, 0, 0, 0, 4, 0, 0, 0, 0, 0, 0, 0]\nclass = BBB+", fillcolor="#39e581"] ;
200 -> 202 ;
203 [label="entropy = 0.0\nsamples = 280\nvalue = [0, 0, 0, 280, 0, 0, 0, 0, 0, 0, 0, 0]\nclass = BBB", fillcolor="#47e539"] ;
199 -> 203 ;
204 [label="aa <= 24.812\nentropy = 0.839\nsamples = 153\nvalue = [0, 0, 0, 41, 112, 0, 0, 0, 0, 0, 0, 0]\nclass = BBB+", fillcolor="#81efaf"] ;
198 -> 204 ;
205 [label="bz <= -15.247\nentropy = 0.073\nsamples = 113\nvalue = [0, 0, 0, 1, 112, 0, 0, 0, 0, 0, 0, 0]\nclass = BBB+", fillcolor="#3be582"] ;
204 -> 205 ;
206 [label="entropy = 0.127\nsamples = 57\nvalue = [0, 0, 0, 1, 56, 0, 0, 0, 0, 0, 0, 0]\nclass = BBB+", fillcolor="#3de583"] ;
205 -> 206 ;
207 [label="entropy = 0.0\nsamples = 56\nvalue = [0, 0, 0, 0, 56, 0, 0, 0, 0, 0, 0, 0]\nclass = BBB+", fillcolor="#39e581"] ;
205 -> 207 ;
208 [label="entropy = 0.0\nsamples = 40\nvalue = [0, 0, 0, 40, 0, 0, 0, 0, 0, 0, 0, 0]\nclass = BBB", fillcolor="#47e539"] ;
204 -> 208 ;
209 [label="bk <= 2.476\nentropy = 0.137\nsamples = 293\nvalue = [0, 0, 0, 4, 288, 0, 1, 0, 0, 0, 0, 0]\nclass = BBB+", fillcolor="#3ce583"] ;
197 -> 209 ;
210 [label="entropy = 0.0\nsamples = 4\nvalue = [0, 0, 0, 4, 0, 0, 0, 0, 0, 0, 0, 0]\nclass = BBB", fillcolor="#47e539"] ;
209 -> 210 ;
211 [label="bc <= 5.591\nentropy = 0.033\nsamples = 289\nvalue = [0, 0, 0, 0, 288, 0, 1, 0, 0, 0, 0, 0]\nclass = BBB+", fillcolor="#3ae581"] ;
209 -> 211 ;
212 [label="entropy = 0.918\nsamples = 3\nvalue = [0, 0, 0, 0, 2, 0, 1, 0, 0, 0, 0, 0]\nclass = BBB+", fillcolor="#9cf2c0"] ;
211 -> 212 ;
213 [label="entropy = 0.0\nsamples = 286\nvalue = [0, 0, 0, 0, 286, 0, 0, 0, 0, 0, 0, 0]\nclass = BBB+", fillcolor="#39e581"] ;
211 -> 213 ;
214 [label="ah <= 3598.505\nentropy = 0.477\nsamples = 2277\nvalue = [0, 0, 0, 142, 2089, 0, 46, 0, 0, 0, 0, 0]\nclass = BBB+", fillcolor="#4ae78c"] ;
190 -> 214 ;
215 [label="bu <= 0.04\nentropy = 0.287\nsamples = 2177\nvalue = [0, 0, 0, 43, 2088, 0, 46, 0, 0, 0, 0, 0]\nclass = BBB+", fillcolor="#41e686"] ;
214 -> 215 ;
216 [label="d <= 5680.5\nentropy = 0.15\nsamples = 2129\nvalue = [0, 0, 0, 40, 2086, 0, 3, 0, 0, 0, 0, 0]\nclass = BBB+", fillcolor="#3de684"] ;
215 -> 216 ;
217 [label="ar <= 23.112\nentropy = 0.016\nsamples = 2001\nvalue = [0, 0, 0, 0, 1998, 0, 3, 0, 0, 0, 0, 0]\nclass = BBB+", fillcolor="#39e581"] ;
216 -> 217 ;
218 [label="ci <= 7541007360.0\nentropy = 0.006\nsamples = 1999\nvalue = [0, 0, 0, 0, 1998, 0, 1, 0, 0, 0, 0, 0]\nclass = BBB+", fillcolor="#39e581"] ;
217 -> 218 ;
219 [label="entropy = 0.0\nsamples = 1900\nvalue = [0, 0, 0, 0, 1900, 0, 0, 0, 0, 0, 0, 0]\nclass = BBB+", fillcolor="#39e581"] ;
218 -> 219 ;
220 [label="entropy = 0.081\nsamples = 99\nvalue = [0, 0, 0, 0, 98, 0, 1, 0, 0, 0, 0, 0]\nclass = BBB+", fillcolor="#3be582"] ;
218 -> 220 ;
221 [label="entropy = 0.0\nsamples = 2\nvalue = [0, 0, 0, 0, 0, 0, 2, 0, 0, 0, 0, 0]\nclass = A", fillcolor="#399de5"] ;
217 -> 221 ;
222 [label="ch <= 12816061952.0\nentropy = 0.896\nsamples = 128\nvalue = [0, 0, 0, 40, 88, 0, 0, 0, 0, 0, 0, 0]\nclass = BBB+", fillcolor="#93f1ba"] ;
216 -> 222 ;
223 [label="entropy = 0.089\nsamples = 89\nvalue = [0, 0, 0, 1, 88, 0, 0, 0, 0, 0, 0, 0]\nclass = BBB+", fillcolor="#3be582"] ;
222 -> 223 ;
224 [label="entropy = 0.0\nsamples = 39\nvalue = [0, 0, 0, 39, 0, 0, 0, 0, 0, 0, 0, 0]\nclass = BBB", fillcolor="#47e539"] ;
222 -> 224 ;
225 [label="g <= 281.0\nentropy = 0.583\nsamples = 48\nvalue = [0, 0, 0, 3, 2, 0, 43, 0, 0, 0, 0, 0]\nclass = A", fillcolor="#4fa8e8"] ;
215 -> 225 ;
226 [label="ag <= 352.117\nentropy = 0.811\nsamples = 4\nvalue = [0, 0, 0, 3, 1, 0, 0, 0, 0, 0, 0, 0]\nclass = BBB", fillcolor="#84ee7b"] ;
225 -> 226 ;
227 [label="entropy = 1.0\nsamples = 2\nvalue = [0, 0, 0, 1, 1, 0, 0, 0, 0, 0, 0, 0]\nclass = BBB", fillcolor="#ffffff"] ;
226 -> 227 ;
228 [label="entropy = 0.0\nsamples = 2\nvalue = [0, 0, 0, 2, 0, 0, 0, 0, 0, 0, 0, 0]\nclass = BBB", fillcolor="#47e539"] ;
226 -> 228 ;
229 [label="h <= 88.05\nentropy = 0.156\nsamples = 44\nvalue = [0, 0, 0, 0, 1, 0, 43, 0, 0, 0, 0, 0]\nclass = A", fillcolor="#3e9fe6"] ;
225 -> 229 ;
230 [label="entropy = 0.811\nsamples = 4\nvalue = [0, 0, 0, 0, 1, 0, 3, 0, 0, 0, 0, 0]\nclass = A", fillcolor="#7bbeee"] ;
229 -> 230 ;
231 [label="entropy = 0.0\nsamples = 40\nvalue = [0, 0, 0, 0, 0, 0, 40, 0, 0, 0, 0, 0]\nclass = A", fillcolor="#399de5"] ;
229 -> 231 ;
232 [label="w <= 35.776\nentropy = 0.081\nsamples = 100\nvalue = [0, 0, 0, 99, 1, 0, 0, 0, 0, 0, 0, 0]\nclass = BBB", fillcolor="#49e53b"] ;
214 -> 232 ;
233 [label="entropy = 0.0\nsamples = 6\nvalue = [0, 0, 0, 6, 0, 0, 0, 0, 0, 0, 0, 0]\nclass = BBB", fillcolor="#47e539"] ;
232 -> 233 ;
234 [label="entropy = 0.085\nsamples = 94\nvalue = [0, 0, 0, 93, 1, 0, 0, 0, 0, 0, 0, 0]\nclass = BBB", fillcolor="#49e53b"] ;
232 -> 234 ;
235 [label="c <= 226000.0\nentropy = 1.492\nsamples = 1747\nvalue = [0, 1, 0, 270, 791, 2, 681, 0, 0, 0, 2, 0]\nclass = BBB+", fillcolor="#ebfcf2"] ;
189 -> 235 ;
236 [label="d <= 42.0\nentropy = 1.184\nsamples = 426\nvalue = [0, 0, 0, 180, 232, 2, 12, 0, 0, 0, 0, 0]\nclass = BBB+", fillcolor="#d5fae4"] ;
235 -> 236 ;
237 [label="cd <= 44734197760.0\nentropy = 0.91\nsamples = 144\nvalue = [0, 0, 0, 116, 21, 2, 5, 0, 0, 0, 0, 0]\nclass = BBB", fillcolor="#71eb66"] ;
236 -> 237 ;
238 [label="ch <= 8300890880.0\nentropy = 0.537\nsamples = 121\nvalue = [0, 0, 0, 111, 4, 2, 4, 0, 0, 0, 0, 0]\nclass = BBB", fillcolor="#57e74a"] ;
237 -> 238 ;
239 [label="ck <= 172778464.0\nentropy = 1.846\nsamples = 10\nvalue = [0, 0, 0, 2, 3, 1, 4, 0, 0, 0, 0, 0]\nclass = A", fillcolor="#e3f1fb"] ;
238 -> 239 ;
240 [label="bf <= 0.021\nentropy = 0.971\nsamples = 5\nvalue = [0, 0, 0, 2, 3, 0, 0, 0, 0, 0, 0, 0]\nclass = BBB+", fillcolor="#bdf6d5"] ;
239 -> 240 ;
241 [label="entropy = 0.0\nsamples = 3\nvalue = [0, 0, 0, 0, 3, 0, 0, 0, 0, 0, 0, 0]\nclass = BBB+", fillcolor="#39e581"] ;
240 -> 241 ;
242 [label="entropy = 0.0\nsamples = 2\nvalue = [0, 0, 0, 2, 0, 0, 0, 0, 0, 0, 0, 0]\nclass = BBB", fillcolor="#47e539"] ;
240 -> 242 ;
243 [label="ay <= 0.388\nentropy = 0.722\nsamples = 5\nvalue = [0, 0, 0, 0, 0, 1, 4, 0, 0, 0, 0, 0]\nclass = A", fillcolor="#6ab6ec"] ;
239 -> 243 ;
244 [label="entropy = 0.0\nsamples = 3\nvalue = [0, 0, 0, 0, 0, 0, 3, 0, 0, 0, 0, 0]\nclass = A", fillcolor="#399de5"] ;
243 -> 244 ;
245 [label="entropy = 1.0\nsamples = 2\nvalue = [0, 0, 0, 0, 0, 1, 1, 0, 0, 0, 0, 0]\nclass = A-", fillcolor="#ffffff"] ;
243 -> 245 ;
246 [label="al <= 5.139\nentropy = 0.148\nsamples = 111\nvalue = [0, 0, 0, 109, 1, 1, 0, 0, 0, 0, 0, 0]\nclass = BBB", fillcolor="#4ae53d"] ;
238 -> 246 ;
247 [label="entropy = 0.0\nsamples = 97\nvalue = [0, 0, 0, 97, 0, 0, 0, 0, 0, 0, 0, 0]\nclass = BBB", fillcolor="#47e539"] ;
246 -> 247 ;
248 [label="cd <= 25901438976.0\nentropy = 0.735\nsamples = 14\nvalue = [0, 0, 0, 12, 1, 1, 0, 0, 0, 0, 0, 0]\nclass = BBB", fillcolor="#63e957"] ;
246 -> 248 ;
249 [label="at <= 44.196\nentropy = 0.439\nsamples = 11\nvalue = [0, 0, 0, 10, 1, 0, 0, 0, 0, 0, 0, 0]\nclass = BBB", fillcolor="#59e84d"] ;
248 -> 249 ;
250 [label="entropy = 0.722\nsamples = 5\nvalue = [0, 0, 0, 4, 1, 0, 0, 0, 0, 0, 0, 0]\nclass = BBB", fillcolor="#75ec6a"] ;
249 -> 250 ;
251 [label="entropy = 0.0\nsamples = 6\nvalue = [0, 0, 0, 6, 0, 0, 0, 0, 0, 0, 0, 0]\nclass = BBB", fillcolor="#47e539"] ;
249 -> 251 ;
252 [label="entropy = 0.918\nsamples = 3\nvalue = [0, 0, 0, 2, 0, 1, 0, 0, 0, 0, 0, 0]\nclass = BBB", fillcolor="#a3f29c"] ;
248 -> 252 ;
253 [label="ad <= -105.29\nentropy = 0.998\nsamples = 23\nvalue = [0, 0, 0, 5, 17, 0, 1, 0, 0, 0, 0, 0]\nclass = BBB+", fillcolor="#7beeab"] ;
237 -> 253 ;
254 [label="entropy = 0.0\nsamples = 5\nvalue = [0, 0, 0, 5, 0, 0, 0, 0, 0, 0, 0, 0]\nclass = BBB", fillcolor="#47e539"] ;
253 -> 254 ;
255 [label="al <= 2.872\nentropy = 0.31\nsamples = 18\nvalue = [0, 0, 0, 0, 17, 0, 1, 0, 0, 0, 0, 0]\nclass = BBB+", fillcolor="#45e788"] ;
253 -> 255 ;
256 [label="entropy = 0.0\nsamples = 16\nvalue = [0, 0, 0, 0, 16, 0, 0, 0, 0, 0, 0, 0]\nclass = BBB+", fillcolor="#39e581"] ;
255 -> 256 ;
257 [label="entropy = 1.0\nsamples = 2\nvalue = [0, 0, 0, 0, 1, 0, 1, 0, 0, 0, 0, 0]\nclass = BBB+", fillcolor="#ffffff"] ;
255 -> 257 ;
258 [label="z <= 8.93\nentropy = 0.931\nsamples = 282\nvalue = [0, 0, 0, 64, 211, 0, 7, 0, 0, 0, 0, 0]\nclass = BBB+", fillcolor="#79edaa"] ;
236 -> 258 ;
259 [label="av <= 29.696\nentropy = 1.23\nsamples = 103\nvalue = [0, 0, 0, 59, 38, 0, 6, 0, 0, 0, 0, 0]\nclass = BBB", fillcolor="#c4f7bf"] ;
258 -> 259 ;
260 [label="aw <= 106.269\nentropy = 0.832\nsamples = 44\nvalue = [0, 0, 0, 2, 36, 0, 6, 0, 0, 0, 0, 0]\nclass = BBB+", fillcolor="#63ea9c"] ;
259 -> 260 ;
261 [label="entropy = 0.0\nsamples = 26\nvalue = [0, 0, 0, 0, 26, 0, 0, 0, 0, 0, 0, 0]\nclass = BBB+", fillcolor="#39e581"] ;
260 -> 261 ;
262 [label="at <= 50.752\nentropy = 1.352\nsamples = 18\nvalue = [0, 0, 0, 2, 10, 0, 6, 0, 0, 0, 0, 0]\nclass = BBB+", fillcolor="#bdf6d5"] ;
260 -> 262 ;
263 [label="ae <= 176.325\nentropy = 0.954\nsamples = 16\nvalue = [0, 0, 0, 0, 10, 0, 6, 0, 0, 0, 0, 0]\nclass = BBB+", fillcolor="#b0f5cd"] ;
262 -> 263 ;
264 [label="entropy = 0.98\nsamples = 12\nvalue = [0, 0, 0, 0, 7, 0, 5, 0, 0, 0, 0, 0]\nclass = BBB+", fillcolor="#c6f8db"] ;
263 -> 264 ;
265 [label="entropy = 0.811\nsamples = 4\nvalue = [0, 0, 0, 0, 3, 0, 1, 0, 0, 0, 0, 0]\nclass = BBB+", fillcolor="#7beeab"] ;
263 -> 265 ;
266 [label="entropy = 0.0\nsamples = 2\nvalue = [0, 0, 0, 2, 0, 0, 0, 0, 0, 0, 0, 0]\nclass = BBB", fillcolor="#47e539"] ;
262 -> 266 ;
267 [label="p <= 4.875\nentropy = 0.214\nsamples = 59\nvalue = [0, 0, 0, 57, 2, 0, 0, 0, 0, 0, 0, 0]\nclass = BBB", fillcolor="#4de640"] ;
259 -> 267 ;
268 [label="entropy = 0.722\nsamples = 10\nvalue = [0, 0, 0, 8, 2, 0, 0, 0, 0, 0, 0, 0]\nclass = BBB", fillcolor="#75ec6a"] ;
267 -> 268 ;
269 [label="entropy = 0.0\nsamples = 49\nvalue = [0, 0, 0, 49, 0, 0, 0, 0, 0, 0, 0, 0]\nclass = BBB", fillcolor="#47e539"] ;
267 -> 269 ;
270 [label="by <= 144.799\nentropy = 0.234\nsamples = 179\nvalue = [0, 0, 0, 5, 173, 0, 1, 0, 0, 0, 0, 0]\nclass = BBB+", fillcolor="#40e685"] ;
258 -> 270 ;
271 [label="t <= 7.108\nentropy = 0.053\nsamples = 166\nvalue = [0, 0, 0, 0, 165, 0, 1, 0, 0, 0, 0, 0]\nclass = BBB+", fillcolor="#3ae582"] ;
270 -> 271 ;
272 [label="entropy = 0.0\nsamples = 154\nvalue = [0, 0, 0, 0, 154, 0, 0, 0, 0, 0, 0, 0]\nclass = BBB+", fillcolor="#39e581"] ;
271 -> 272 ;
273 [label="entropy = 0.414\nsamples = 12\nvalue = [0, 0, 0, 0, 11, 0, 1, 0, 0, 0, 0, 0]\nclass = BBB+", fillcolor="#4be78c"] ;
271 -> 273 ;
274 [label="by <= 278.453\nentropy = 0.961\nsamples = 13\nvalue = [0, 0, 0, 5, 8, 0, 0, 0, 0, 0, 0, 0]\nclass = BBB+", fillcolor="#b5f5d0"] ;
270 -> 274 ;
275 [label="entropy = 0.0\nsamples = 5\nvalue = [0, 0, 0, 5, 0, 0, 0, 0, 0, 0, 0, 0]\nclass = BBB", fillcolor="#47e539"] ;
274 -> 275 ;
276 [label="entropy = 0.0\nsamples = 8\nvalue = [0, 0, 0, 0, 8, 0, 0, 0, 0, 0, 0, 0]\nclass = BBB+", fillcolor="#39e581"] ;
274 -> 276 ;
277 [label="g <= 927.45\nentropy = 1.308\nsamples = 1321\nvalue = [0, 1, 0, 90, 559, 0, 669, 0, 0, 0, 2, 0]\nclass = A", fillcolor="#e2f1fb"] ;
235 -> 277 ;
278 [label="ck <= 1726221504.0\nentropy = 1.336\nsamples = 1078\nvalue = [0, 0, 0, 90, 559, 0, 427, 0, 0, 0, 2, 0]\nclass = BBB+", fillcolor="#d7fae5"] ;
277 -> 278 ;
279 [label="bd <= 0.081\nentropy = 1.294\nsamples = 902\nvalue = [0, 0, 0, 90, 558, 0, 252, 0, 0, 0, 2, 0]\nclass = BBB+", fillcolor="#a2f3c4"] ;
278 -> 279 ;
280 [label="entropy = 0.0\nsamples = 260\nvalue = [0, 0, 0, 0, 260, 0, 0, 0, 0, 0, 0, 0]\nclass = BBB+", fillcolor="#39e581"] ;
279 -> 280 ;
281 [label="bi <= 0.147\nentropy = 1.467\nsamples = 642\nvalue = [0, 0, 0, 90, 298, 0, 252, 0, 0, 0, 2, 0]\nclass = BBB+", fillcolor="#e8fcf0"] ;
279 -> 281 ;
282 [label="cj <= 307719104.0\nentropy = 1.047\nsamples = 281\nvalue = [0, 0, 0, 11, 73, 0, 197, 0, 0, 0, 0, 0]\nclass = A", fillcolor="#89c5f0"] ;
281 -> 282 ;
283 [label="af <= 0.792\nentropy = 1.229\nsamples = 96\nvalue = [0, 0, 0, 8, 61, 0, 27, 0, 0, 0, 0, 0]\nclass = BBB+", fillcolor="#9df2c1"] ;
282 -> 283 ;
284 [label="af <= 0.447\nentropy = 1.198\nsamples = 39\nvalue = [0, 0, 0, 6, 6, 0, 27, 0, 0, 0, 0, 0]\nclass = A", fillcolor="#81c1ee"] ;
283 -> 284 ;
285 [label="ah <= -311.298\nentropy = 1.0\nsamples = 12\nvalue = [0, 0, 0, 6, 6, 0, 0, 0, 0, 0, 0, 0]\nclass = BBB", fillcolor="#ffffff"] ;
284 -> 285 ;
286 [label="entropy = 0.0\nsamples = 6\nvalue = [0, 0, 0, 6, 0, 0, 0, 0, 0, 0, 0, 0]\nclass = BBB", fillcolor="#47e539"] ;
285 -> 286 ;
287 [label="entropy = 0.0\nsamples = 6\nvalue = [0, 0, 0, 0, 6, 0, 0, 0, 0, 0, 0, 0]\nclass = BBB+", fillcolor="#39e581"] ;
285 -> 287 ;
288 [label="entropy = 0.0\nsamples = 27\nvalue = [0, 0, 0, 0, 0, 0, 27, 0, 0, 0, 0, 0]\nclass = A", fillcolor="#399de5"] ;
284 -> 288 ;
289 [label="bc <= 1.694\nentropy = 0.219\nsamples = 57\nvalue = [0, 0, 0, 2, 55, 0, 0, 0, 0, 0, 0, 0]\nclass = BBB+", fillcolor="#40e686"] ;
283 -> 289 ;
290 [label="bh <= 1.62\nentropy = 1.0\nsamples = 4\nvalue = [0, 0, 0, 2, 2, 0, 0, 0, 0, 0, 0, 0]\nclass = BBB", fillcolor="#ffffff"] ;
289 -> 290 ;
291 [label="entropy = 0.0\nsamples = 2\nvalue = [0, 0, 0, 2, 0, 0, 0, 0, 0, 0, 0, 0]\nclass = BBB", fillcolor="#47e539"] ;
290 -> 291 ;
292 [label="entropy = 0.0\nsamples = 2\nvalue = [0, 0, 0, 0, 2, 0, 0, 0, 0, 0, 0, 0]\nclass = BBB+", fillcolor="#39e581"] ;
290 -> 292 ;
293 [label="entropy = 0.0\nsamples = 53\nvalue = [0, 0, 0, 0, 53, 0, 0, 0, 0, 0, 0, 0]\nclass = BBB+", fillcolor="#39e581"] ;
289 -> 293 ;
294 [label="cb <= -8.054\nentropy = 0.465\nsamples = 185\nvalue = [0, 0, 0, 3, 12, 0, 170, 0, 0, 0, 0, 0]\nclass = A", fillcolor="#4aa5e7"] ;
282 -> 294 ;
295 [label="ci <= 2539723136.0\nentropy = 0.99\nsamples = 25\nvalue = [0, 0, 0, 0, 11, 0, 14, 0, 0, 0, 0, 0]\nclass = A", fillcolor="#d5eaf9"] ;
294 -> 295 ;
296 [label="entropy = 0.0\nsamples = 11\nvalue = [0, 0, 0, 0, 11, 0, 0, 0, 0, 0, 0, 0]\nclass = BBB+", fillcolor="#39e581"] ;
295 -> 296 ;
297 [label="entropy = 0.0\nsamples = 14\nvalue = [0, 0, 0, 0, 0, 0, 14, 0, 0, 0, 0, 0]\nclass = A", fillcolor="#399de5"] ;
295 -> 297 ;
298 [label="k <= 7.154\nentropy = 0.189\nsamples = 160\nvalue = [0, 0, 0, 3, 1, 0, 156, 0, 0, 0, 0, 0]\nclass = A", fillcolor="#3e9fe6"] ;
294 -> 298 ;
299 [label="bw <= -24.582\nentropy = 0.111\nsamples = 158\nvalue = [0, 0, 0, 1, 1, 0, 156, 0, 0, 0, 0, 0]\nclass = A", fillcolor="#3c9ee5"] ;
298 -> 299 ;
300 [label="entropy = 1.0\nsamples = 2\nvalue = [0, 0, 0, 0, 1, 0, 1, 0, 0, 0, 0, 0]\nclass = BBB+", fillcolor="#ffffff"] ;
299 -> 300 ;
301 [label="entropy = 0.056\nsamples = 156\nvalue = [0, 0, 0, 1, 0, 0, 155, 0, 0, 0, 0, 0]\nclass = A", fillcolor="#3a9ee5"] ;
299 -> 301 ;
302 [label="entropy = 0.0\nsamples = 2\nvalue = [0, 0, 0, 2, 0, 0, 0, 0, 0, 0, 0, 0]\nclass = BBB", fillcolor="#47e539"] ;
298 -> 302 ;
303 [label="ck <= 619736800.0\nentropy = 1.36\nsamples = 361\nvalue = [0, 0, 0, 79, 225, 0, 55, 0, 0, 0, 2, 0]\nclass = BBB+", fillcolor="#98f2be"] ;
281 -> 303 ;
304 [label="l <= 1.17\nentropy = 1.046\nsamples = 268\nvalue = [0, 0, 0, 69, 190, 0, 7, 0, 0, 0, 2, 0]\nclass = BBB+", fillcolor="#87efb2"] ;
303 -> 304 ;
305 [label="bx <= -81.064\nentropy = 0.333\nsamples = 114\nvalue = [0, 0, 0, 0, 107, 0, 7, 0, 0, 0, 0, 0]\nclass = BBB+", fillcolor="#46e789"] ;
304 -> 305 ;
306 [label="entropy = 0.0\nsamples = 7\nvalue = [0, 0, 0, 0, 0, 0, 7, 0, 0, 0, 0, 0]\nclass = A", fillcolor="#399de5"] ;
305 -> 306 ;
307 [label="entropy = 0.0\nsamples = 107\nvalue = [0, 0, 0, 0, 107, 0, 0, 0, 0, 0, 0, 0]\nclass = BBB+", fillcolor="#39e581"] ;
305 -> 307 ;
308 [label="bm <= 3.868\nentropy = 1.081\nsamples = 154\nvalue = [0, 0, 0, 69, 83, 0, 0, 0, 0, 0, 2, 0]\nclass = BBB+", fillcolor="#defbea"] ;
304 -> 308 ;
309 [label="cg <= 10218815488.0\nentropy = 0.817\nsamples = 91\nvalue = [0, 0, 0, 16, 73, 0, 0, 0, 0, 0, 2, 0]\nclass = BBB+", fillcolor="#69eb9f"] ;
308 -> 309 ;
310 [label="entropy = 0.281\nsamples = 41\nvalue = [0, 0, 0, 0, 39, 0, 0, 0, 0, 0, 2, 0]\nclass = BBB+", fillcolor="#43e687"] ;
309 -> 310 ;
311 [label="entropy = 0.904\nsamples = 50\nvalue = [0, 0, 0, 16, 34, 0, 0, 0, 0, 0, 0, 0]\nclass = BBB+", fillcolor="#96f1bc"] ;
309 -> 311 ;
312 [label="m <= 0.692\nentropy = 0.631\nsamples = 63\nvalue = [0, 0, 0, 53, 10, 0, 0, 0, 0, 0, 0, 0]\nclass = BBB", fillcolor="#6aea5e"] ;
308 -> 312 ;
313 [label="entropy = 0.684\nsamples = 11\nvalue = [0, 0, 0, 2, 9, 0, 0, 0, 0, 0, 0, 0]\nclass = BBB+", fillcolor="#65eb9d"] ;
312 -> 313 ;
314 [label="entropy = 0.137\nsamples = 52\nvalue = [0, 0, 0, 51, 1, 0, 0, 0, 0, 0, 0, 0]\nclass = BBB", fillcolor="#4be63d"] ;
312 -> 314 ;
315 [label="az <= 0.459\nentropy = 1.369\nsamples = 93\nvalue = [0, 0, 0, 10, 35, 0, 48, 0, 0, 0, 0, 0]\nclass = A", fillcolor="#d3e9f9"] ;
303 -> 315 ;
316 [label="p <= 90.866\nentropy = 1.34\nsamples = 47\nvalue = [0, 0, 0, 10, 29, 0, 8, 0, 0, 0, 0, 0]\nclass = BBB+", fillcolor="#99f2be"] ;
315 -> 316 ;
317 [label="cb <= -52.545\nentropy = 0.821\nsamples = 39\nvalue = [0, 0, 0, 10, 29, 0, 0, 0, 0, 0, 0, 0]\nclass = BBB+", fillcolor="#7deeac"] ;
316 -> 317 ;
318 [label="entropy = 0.0\nsamples = 8\nvalue = [0, 0, 0, 8, 0, 0, 0, 0, 0, 0, 0, 0]\nclass = BBB", fillcolor="#47e539"] ;
317 -> 318 ;
319 [label="entropy = 0.345\nsamples = 31\nvalue = [0, 0, 0, 2, 29, 0, 0, 0, 0, 0, 0, 0]\nclass = BBB+", fillcolor="#47e78a"] ;
317 -> 319 ;
320 [label="entropy = 0.0\nsamples = 8\nvalue = [0, 0, 0, 0, 0, 0, 8, 0, 0, 0, 0, 0]\nclass = A", fillcolor="#399de5"] ;
316 -> 320 ;
321 [label="bg <= 0.077\nentropy = 0.559\nsamples = 46\nvalue = [0, 0, 0, 0, 6, 0, 40, 0, 0, 0, 0, 0]\nclass = A", fillcolor="#57ace9"] ;
315 -> 321 ;
322 [label="r <= 8.977\nentropy = 0.276\nsamples = 42\nvalue = [0, 0, 0, 0, 2, 0, 40, 0, 0, 0, 0, 0]\nclass = A", fillcolor="#43a2e6"] ;
321 -> 322 ;
323 [label="entropy = 0.0\nsamples = 2\nvalue = [0, 0, 0, 0, 2, 0, 0, 0, 0, 0, 0, 0]\nclass = BBB+", fillcolor="#39e581"] ;
322 -> 323 ;
324 [label="entropy = 0.0\nsamples = 40\nvalue = [0, 0, 0, 0, 0, 0, 40, 0, 0, 0, 0, 0]\nclass = A", fillcolor="#399de5"] ;
322 -> 324 ;
325 [label="entropy = 0.0\nsamples = 4\nvalue = [0, 0, 0, 0, 4, 0, 0, 0, 0, 0, 0, 0]\nclass = BBB+", fillcolor="#39e581"] ;
321 -> 325 ;
326 [label="ah <= -302.033\nentropy = 0.051\nsamples = 176\nvalue = [0, 0, 0, 0, 1, 0, 175, 0, 0, 0, 0, 0]\nclass = A", fillcolor="#3a9ee5"] ;
278 -> 326 ;
327 [label="entropy = 1.0\nsamples = 2\nvalue = [0, 0, 0, 0, 1, 0, 1, 0, 0, 0, 0, 0]\nclass = BBB+", fillcolor="#ffffff"] ;
326 -> 327 ;
328 [label="entropy = 0.0\nsamples = 174\nvalue = [0, 0, 0, 0, 0, 0, 174, 0, 0, 0, 0, 0]\nclass = A", fillcolor="#399de5"] ;
326 -> 328 ;
329 [label="n <= -0.742\nentropy = 0.039\nsamples = 243\nvalue = [0, 1, 0, 0, 0, 0, 242, 0, 0, 0, 0, 0]\nclass = A", fillcolor="#3a9de5"] ;
277 -> 329 ;
330 [label="entropy = 1.0\nsamples = 2\nvalue = [0, 1, 0, 0, 0, 0, 1, 0, 0, 0, 0, 0]\nclass = CC", fillcolor="#ffffff"] ;
329 -> 330 ;
331 [label="entropy = 0.0\nsamples = 241\nvalue = [0, 0, 0, 0, 0, 0, 241, 0, 0, 0, 0, 0]\nclass = A", fillcolor="#399de5"] ;
329 -> 331 ;
332 [label="ch <= 26146429952.0\nentropy = 0.163\nsamples = 6455\nvalue = [0, 0, 0, 0, 154, 0, 6301, 0, 0, 0, 0, 0]\nclass = A", fillcolor="#3e9fe6"] ;
0 -> 332 [labeldistance=2.5, labelangle=-45, headlabel="False"] ;
333 [label="bu <= 0.03\nentropy = 0.627\nsamples = 955\nvalue = [0, 0, 0, 0, 150, 0, 805, 0, 0, 0, 0, 0]\nclass = A", fillcolor="#5eafea"] ;
332 -> 333 ;
334 [label="ch <= 25640243200.0\nentropy = 0.252\nsamples = 806\nvalue = [0, 0, 0, 0, 34, 0, 772, 0, 0, 0, 0, 0]\nclass = A", fillcolor="#42a1e6"] ;
333 -> 334 ;
335 [label="entropy = 0.0\nsamples = 771\nvalue = [0, 0, 0, 0, 0, 0, 771, 0, 0, 0, 0, 0]\nclass = A", fillcolor="#399de5"] ;
334 -> 335 ;
336 [label="entropy = 0.187\nsamples = 35\nvalue = [0, 0, 0, 0, 34, 0, 1, 0, 0, 0, 0, 0]\nclass = BBB+", fillcolor="#3fe685"] ;
334 -> 336 ;
337 [label="ap <= 3560.263\nentropy = 0.763\nsamples = 149\nvalue = [0, 0, 0, 0, 116, 0, 33, 0, 0, 0, 0, 0]\nclass = BBB+", fillcolor="#71eca5"] ;
333 -> 337 ;
338 [label="entropy = 0.0\nsamples = 116\nvalue = [0, 0, 0, 0, 116, 0, 0, 0, 0, 0, 0, 0]\nclass = BBB+", fillcolor="#39e581"] ;
337 -> 338 ;
339 [label="entropy = 0.0\nsamples = 33\nvalue = [0, 0, 0, 0, 0, 0, 33, 0, 0, 0, 0, 0]\nclass = A", fillcolor="#399de5"] ;
337 -> 339 ;
340 [label="bf <= 0.218\nentropy = 0.009\nsamples = 5500\nvalue = [0, 0, 0, 0, 4, 0, 5496, 0, 0, 0, 0, 0]\nclass = A", fillcolor="#399de5"] ;
332 -> 340 ;
341 [label="entropy = 0.0\nsamples = 5496\nvalue = [0, 0, 0, 0, 0, 0, 5496, 0, 0, 0, 0, 0]\nclass = A", fillcolor="#399de5"] ;
340 -> 341 ;
342 [label="entropy = 0.0\nsamples = 4\nvalue = [0, 0, 0, 0, 4, 0, 0, 0, 0, 0, 0, 0]\nclass = BBB+", fillcolor="#39e581"] ;
340 -> 342 ;
}