digraph Tree {
node [shape=box, style="filled", color="black"] ;
0 [label="X[0] <= 0.238\nentropy = 1.58\nsamples = 120\nvalue = [44, 40, 36]", fillcolor="#e581390d"] ;
1 [label="entropy = 0.0\nsamples = 44\nvalue = [44, 0, 0]", fillcolor="#e58139ff"] ;
0 -> 1 [labeldistance=2.5, labelangle=45, headlabel="True"] ;
2 [label="X[0] <= 0.624\nentropy = 0.998\nsamples = 76\nvalue = [0, 40, 36]", fillcolor="#39e58119"] ;
0 -> 2 [labeldistance=2.5, labelangle=-45, headlabel="False"] ;
3 [label="X[1] <= 0.062\nentropy = 0.183\nsamples = 36\nvalue = [0, 35, 1]", fillcolor="#39e581f8"] ;
2 -> 3 ;
4 [label="X[1] <= 0.014\nentropy = 1.0\nsamples = 2\nvalue = [0, 1, 1]", fillcolor="#39e58100"] ;
3 -> 4 ;
5 [label="entropy = 0.0\nsamples = 1\nvalue = [0, 1, 0]", fillcolor="#39e581ff"] ;
4 -> 5 ;
6 [label="entropy = 0.0\nsamples = 1\nvalue = [0, 0, 1]", fillcolor="#8139e5ff"] ;
4 -> 6 ;
7 [label="entropy = 0.0\nsamples = 34\nvalue = [0, 34, 0]", fillcolor="#39e581ff"] ;
3 -> 7 ;
8 [label="X[0] <= 0.683\nentropy = 0.544\nsamples = 40\nvalue = [0, 5, 35]", fillcolor="#8139e5db"] ;
2 -> 8 ;
9 [label="X[1] <= 0.513\nentropy = 0.98\nsamples = 12\nvalue = [0, 5, 7]", fillcolor="#8139e549"] ;
8 -> 9 ;
10 [label="X[0] <= 0.656\nentropy = 0.764\nsamples = 9\nvalue = [0, 2, 7]", fillcolor="#8139e5b6"] ;
9 -> 10 ;
11 [label="X[1] <= 0.287\nentropy = 0.971\nsamples = 5\nvalue = [0, 2, 3]", fillcolor="#8139e555"] ;
10 -> 11 ;
12 [label="entropy = 0.0\nsamples = 2\nvalue = [0, 0, 2]", fillcolor="#8139e5ff"] ;
11 -> 12 ;
13 [label="X[1] <= 0.399\nentropy = 0.918\nsamples = 3\nvalue = [0, 2, 1]", fillcolor="#39e5817f"] ;
11 -> 13 ;
14 [label="entropy = 0.0\nsamples = 2\nvalue = [0, 2, 0]", fillcolor="#39e581ff"] ;
13 -> 14 ;
15 [label="entropy = 0.0\nsamples = 1\nvalue = [0, 0, 1]", fillcolor="#8139e5ff"] ;
13 -> 15 ;
16 [label="entropy = 0.0\nsamples = 4\nvalue = [0, 0, 4]", fillcolor="#8139e5ff"] ;
10 -> 16 ;
17 [label="entropy = 0.0\nsamples = 3\nvalue = [0, 3, 0]", fillcolor="#39e581ff"] ;
9 -> 17 ;
18 [label="entropy = 0.0\nsamples = 28\nvalue = [0, 0, 28]", fillcolor="#8139e5ff"] ;
8 -> 18 ;
}